genomestart 1
trait 1 0.1 0 0 0 0 0 0 0
node 1 0 1 3 1 0.5 0.5
node 2 0 1 1 1 0.5 0.5
node 3 0 1 1 1 0.5 0.5
node 4 0 1 1 1 0.5 0.5
node 5 0 1 1 1 0.5 0.5
node 6 0 1 1 1 0.5 0.5
node 7 0 1 1 1 0.5 0.5
node 8 0 1 1 1 0.5 0.5
node 9 0 1 1 1 0.5 0.5
node 10 0 1 1 1 0.5 0.5
node 11 0 1 1 1 0.5 0.5
node 12 0 1 1 1 0.5 0.5
node 13 0 1 1 1 0.5 0.5
node 14 0 1 1 1 0.5 0.5
node 15 0 1 1 1 0.5 0.5
node 16 0 1 1 1 0.5 0.5
node 17 0 1 1 1 0.5 0.5
node 18 0 1 1 1 0.5 0.5
node 19 0 1 1 1 0.5 0.5
node 20 0 1 1 1 0.5 0.5
node 21 0 1 1 1 0.5 0.5
node 22 0 1 1 1 0.5 0.5
node 23 0 1 1 1 0.5 0.5
node 24 0 1 1 1 0.5 0.5
node 25 0 1 1 1 0.5 0.5
node 26 0 1 1 1 0.5 0.5
node 27 0 1 1 1 0.5 0.5
node 28 0 1 1 1 0.5 0.5
node 29 0 1 1 1 0.5 0.5
node 30 0 1 1 1 0.5 0.5
node 31 0 1 1 1 0.5 0.5
node 32 0 1 1 1 0.5 0.5
node 33 0 1 1 1 0.5 0.5
node 34 0 1 1 1 0.5 0.5
node 35 0 1 1 1 0.5 0.5
node 36 0 1 1 1 0.5 0.5
node 37 0 1 1 1 0.5 0.5
node 38 0 1 1 1 0.5 0.5
node 39 0 1 1 1 0.5 0.5
node 40 0 0 2 0 0.5 0.5
gene 1 1 40 0.0 0 1 0 1
genomeend 1
